Loading openmpi/4.0.4-gcc-10.2
  Loading requirement: gcc/10.2
;2.20499
Read 500000 data points with 200 features in 28581ms using the libsvm parser.
Using OpenMP as backend.

Setup for solving the optimization problem done in 1001ms.
;537.397
Start Iteration 1 (max: 200) with current residuum 3.339688513918847e+20 (target: 333968851.3918847).
;536.46
;537.629
Start Iteration 2 (max: 200) with current residuum 3.0535730165082963e+17 (target: 333968851.3918847).
;532.419
;535.283
Start Iteration 3 (max: 200) with current residuum 88821662997.08253 (target: 333968851.3918847).
;536.184
;537.449
Start Iteration 4 (max: 200) with current residuum 15030011030.210691 (target: 333968851.3918847).
;537.396
;537.467
Start Iteration 5 (max: 200) with current residuum 37777960194.65336 (target: 333968851.3918847).
;537.8
;537.68
Start Iteration 6 (max: 200) with current residuum 7832070507.5906105 (target: 333968851.3918847).
;537.666
;536.98
Start Iteration 7 (max: 200) with current residuum 3416203480.1435976 (target: 333968851.3918847).
;535.567
;537.343
Start Iteration 8 (max: 200) with current residuum 1282625028.024816 (target: 333968851.3918847).
;535.995
;537.387
Start Iteration 9 (max: 200) with current residuum 26652949025.259964 (target: 333968851.3918847).
;535.228
;537.03
Start Iteration 10 (max: 200) with current residuum 698695163.60444 (target: 333968851.3918847).
;537.188
;536.988
Start Iteration 11 (max: 200) with current residuum 1285821550.4004304 (target: 333968851.3918847).
;535.203
;536.601
Finished after 11 iterations with a residuum of 111864582.376808 (target: 333968851.3918847).
Solved minimization problem (r = b - Ax) using CG in 12374842ms.

Optimization finished
svm_type c_svc
kernel_type linear
nr_class 2
total_sv 500000
rho 0.9176261751811694
label 1 -1
nr_sv 250000 250000
SV

Wrote model file with 500000 support vectors in 105521ms.
       JobID     AveRSS     MaxRSS    Elapsed MaxRSSTask  AveVMSize  MaxVMSize 
------------ ---------- ---------- ---------- ---------- ---------- ---------- 
4546                                 03:28:39                                  
4546.0       2419786.5+   2479176K   03:28:38          0 3000872.5+   3079220K 
