Loading openmpi/4.0.4-gcc-10.2
  Loading requirement: gcc/10.2
;0.446123
Read 50000 data points with 200 features in 3029ms using the libsvm parser.
Using OpenMP as backend.

9 ; 0
8 ; 0
5 ; 156237500
7 ; 156250000
6 ; 156262500
4 ; 156237500
3 ; 156250000
2 ; 156237500
Setup for solving the optimization problem done in 153ms.
;26.188
0 ; 156250000
1 ; 156250000
Start Iteration 1 (max: 200) with current residuum 3.8563111025710765e+17 (target: 385631.11025710765).
8 ; 0
9 ; 0
7 ; 156250000
5 ; 156237500
6 ; 156262500
4 ; 156237500
3 ; 156250000
2 ; 156237500
1 ; 156250000
;26.2401
0 ; 156250000
8 ; 0
9 ; 0
5 ; 156237500
6 ; 156262500
7 ; 156250000
3 ; 156250000
4 ; 156237500
2 ; 156237500
;25.972
0 ; 156250000
1 ; 156250000
Start Iteration 2 (max: 200) with current residuum 525928356338223.5 (target: 385631.11025710765).
8 ; 0
9 ; 0
5 ; 156237500
6 ; 156262500
7 ; 156250000
4 ; 156237500
3 ; 156250000
2 ; 156237500
;26.2006
0 ; 156250000
1 ; 156250000
8 ; 0
9 ; 0
7 ; 156250000
5 ; 156237500
6 ; 156262500
3 ; 156250000
4 ; 156237500
2 ; 156237500
1 ; 156250000
;26.5104
0 ; 156250000
Start Iteration 3 (max: 200) with current residuum 146708042.52958968 (target: 385631.11025710765).
8 ; 0
9 ; 0
5 ; 156237500
7 ; 156250000
6 ; 156262500
4 ; 156237500
2 ; 156237500
3 ; 156250000
;25.7962
0 ; 156250000
1 ; 156250000
8 ; 0
9 ; 0
5 ; 156237500
7 ; 156250000
6 ; 156262500
3 ; 156250000
4 ; 156237500
2 ; 156237500
;26.3633
0 ; 156250000
1 ; 156250000
Start Iteration 4 (max: 200) with current residuum 25487105.601248242 (target: 385631.11025710765).
8 ; 0
9 ; 0
6 ; 156262500
7 ; 156250000
5 ; 156237500
4 ; 156237500
3 ; 156250000
2 ; 156237500
;26.1239
0 ; 156250000
1 ; 156250000
8 ; 0
9 ; 0
5 ; 156237500
6 ; 156262500
7 ; 156250000
3 ; 156250000
4 ; 156237500
1 ; 156250000
2 ; 156237500
;26.1105
0 ; 156250000
Start Iteration 5 (max: 200) with current residuum 11368325.765327277 (target: 385631.11025710765).
8 ; 0
9 ; 0
7 ; 156250000
5 ; 156237500
6 ; 156262500
4 ; 156237500
3 ; 156250000
2 ; 156237500
;26.1695
0 ; 156250000
1 ; 156250000
8 ; 0
9 ; 0
5 ; 156237500
6 ; 156262500
7 ; 156250000
4 ; 156237500
3 ; 156250000
2 ; 156237500
;25.4199
0 ; 156250000
1 ; 156250000
Start Iteration 6 (max: 200) with current residuum 203225052.02870068 (target: 385631.11025710765).
9 ; 0
8 ; 0
5 ; 156237500
7 ; 156250000
6 ; 156262500
3 ; 156250000
4 ; 156237500
2 ; 156237500
1 ; 156250000
;25.9281
0 ; 156250000
8 ; 0
9 ; 0
5 ; 156237500
6 ; 156262500
7 ; 156250000
4 ; 156237500
3 ; 156250000
2 ; 156237500
1 ; 156250000
;26.0628
0 ; 156250000
Start Iteration 7 (max: 200) with current residuum 4649605.0555612445 (target: 385631.11025710765).
8 ; 0
9 ; 0
7 ; 156250000
5 ; 156237500
6 ; 156262500
2 ; 156237500
4 ; 156237500
3 ; 156250000
1 ; 156250000
;25.7
0 ; 156250000
8 ; 0
9 ; 0
5 ; 156237500
6 ; 156262500
7 ; 156250000
3 ; 156250000
2 ; 156237500
4 ; 156237500
1 ; 156250000
;26.058
0 ; 156250000
Start Iteration 8 (max: 200) with current residuum 3116718.9113950985 (target: 385631.11025710765).
8 ; 0
9 ; 0
5 ; 156237500
7 ; 156250000
6 ; 156262500
4 ; 156237500
3 ; 156250000
2 ; 156237500
1 ; 156250000
;26.2885
0 ; 156250000
8 ; 0
9 ; 0
5 ; 156237500
6 ; 156262500
7 ; 156250000
3 ; 156250000
4 ; 156237500
2 ; 156237500
;25.9799
0 ; 156250000
1 ; 156250000
Start Iteration 9 (max: 200) with current residuum 10063858.423354197 (target: 385631.11025710765).
8 ; 0
9 ; 0
5 ; 156237500
6 ; 156262500
7 ; 156250000
4 ; 156237500
3 ; 156250000
2 ; 156237500
;25.9002
0 ; 156250000
1 ; 156250000
8 ; 0
9 ; 0
6 ; 156262500
5 ; 156237500
7 ; 156250000
3 ; 156250000
4 ; 156237500
2 ; 156237500
1 ; 156250000
;26.229
0 ; 156250000
Start Iteration 10 (max: 200) with current residuum 1402745.8456396495 (target: 385631.11025710765).
8 ; 0
9 ; 0
5 ; 156237500
6 ; 156262500
7 ; 156250000
4 ; 156237500
3 ; 156250000
2 ; 156237500
;26.0441
0 ; 156250000
1 ; 156250000
8 ; 0
9 ; 0
5 ; 156237500
6 ; 156262500
7 ; 156250000
4 ; 156237500
3 ; 156250000
2 ; 156237500
;26.2519
0 ; 156250000
1 ; 156250000
Start Iteration 11 (max: 200) with current residuum 65111553.352159806 (target: 385631.11025710765).
8 ; 0
9 ; 0
7 ; 156250000
5 ; 156237500
6 ; 156262500
3 ; 156250000
4 ; 156237500
;25.7479
0 ; 156250000
2 ; 156237500
1 ; 156250000
8 ; 0
9 ; 0
5 ; 156237500
7 ; 156250000
6 ; 156262500
4 ; 156237500
3 ; 156250000
2 ; 156237500
;26.1642
0 ; 156250000
1 ; 156250000
Start Iteration 12 (max: 200) with current residuum 535014.7034087166 (target: 385631.11025710765).
8 ; 0
9 ; 0
5 ; 156237500
7 ; 156250000
6 ; 156262500
4 ; 156237500
3 ; 156250000
2 ; 156237500
;26.3921
0 ; 156250000
1 ; 156250000
8 ; 0
9 ; 0
7 ; 156250000
5 ; 156237500
6 ; 156262500
4 ; 156237500
3 ; 156250000
2 ; 156237500
;26.1762
0 ; 156250000
1 ; 156250000
Finished after 12 iterations with a residuum of 170885.6411275341 (target: 385631.11025710765).
Solved minimization problem (r = b - Ax) using CG in 655769ms.

Optimization finished
svm_type c_svc
kernel_type linear
nr_class 2
total_sv 50000
rho 0.020944544768411788
label 1 -1
nr_sv 24932 25068
SV

Wrote model file with 50000 support vectors in 3030ms.
       JobID     AveRSS     MaxRSS    Elapsed MaxRSSTask  AveVMSize  MaxVMSize 
------------ ---------- ---------- ---------- ---------- ---------- ---------- 
4720                                 00:11:04                                  
4720.0         53202124    107208K   00:11:04          0  633027776    736736K 
