Loading openmpi/4.0.4-gcc-10.2
  Loading requirement: gcc/10.2
;0.493247
Read 50000 data points with 200 features in 3722ms using the libsvm parser.
Using OpenMP as backend.

4 ; 138869445
2 ; 277755555
3 ; 277805556
1 ; 277755555
Setup for solving the optimization problem done in 117ms.
;41.2041
0 ; 277788889
Start Iteration 1 (max: 200) with current residuum 3.856311102571073e+17 (target: 385631.1102571073).
4 ; 138869445
1 ; 277755555
3 ; 277805556
2 ; 277755555
;41.6067
0 ; 277788889
4 ; 138869445
3 ; 277805556
2 ; 277755555
1 ; 277755555
;41.4028
0 ; 277788889
Start Iteration 2 (max: 200) with current residuum 525928356338223 (target: 385631.1102571073).
4 ; 138869445
3 ; 277805556
1 ; 277755555
2 ; 277755555
;41.3824
0 ; 277788889
4 ; 138869445
1 ; 277755555
2 ; 277755555
3 ; 277805556
;41.3104
0 ; 277788889
Start Iteration 3 (max: 200) with current residuum 146708042.5295904 (target: 385631.1102571073).
4 ; 138869445
1 ; 277755555
2 ; 277755555
3 ; 277805556
;41.8859
0 ; 277788889
4 ; 138869445
3 ; 277805556
1 ; 277755555
2 ; 277755555
;41.498
0 ; 277788889
Start Iteration 4 (max: 200) with current residuum 25487105.610596992 (target: 385631.1102571073).
4 ; 138869445
3 ; 277805556
1 ; 277755555
2 ; 277755555
;41.5809
0 ; 277788889
4 ; 138869445
2 ; 277755555
1 ; 277755555
3 ; 277805556
;41.4421
0 ; 277788889
Start Iteration 5 (max: 200) with current residuum 11450608.880047238 (target: 385631.1102571073).
4 ; 138869445
3 ; 277805556
1 ; 277755555
2 ; 277755555
;41.5787
0 ; 277788889
4 ; 138869445
3 ; 277805556
2 ; 277755555
1 ; 277755555
;41.5676
0 ; 277788889
Start Iteration 6 (max: 200) with current residuum 180091523.7474362 (target: 385631.1102571073).
4 ; 138869445
3 ; 277805556
2 ; 277755555
1 ; 277755555
;41.4339
0 ; 277788889
4 ; 138869445
3 ; 277805556
2 ; 277755555
1 ; 277755555
;41.4087
0 ; 277788889
Start Iteration 7 (max: 200) with current residuum 4649604.596635552 (target: 385631.1102571073).
4 ; 138869445
3 ; 277805556
2 ; 277755555
1 ; 277755555
;41.6067
0 ; 277788889
4 ; 138869445
2 ; 277755555
3 ; 277805556
1 ; 277755555
;41.1821
0 ; 277788889
Start Iteration 8 (max: 200) with current residuum 3116430.161616569 (target: 385631.1102571073).
4 ; 138869445
3 ; 277805556
1 ; 277755555
2 ; 277755555
;41.6174
0 ; 277788889
4 ; 138869445
3 ; 277805556
2 ; 277755555
1 ; 277755555
;41.1692
0 ; 277788889
Start Iteration 9 (max: 200) with current residuum 4162074.969572629 (target: 385631.1102571073).
4 ; 138869445
3 ; 277805556
2 ; 277755555
1 ; 277755555
;41.5119
0 ; 277788889
4 ; 138869445
3 ; 277805556
1 ; 277755555
2 ; 277755555
;41.3672
0 ; 277788889
Start Iteration 10 (max: 200) with current residuum 1748544.028843968 (target: 385631.1102571073).
4 ; 138869445
3 ; 277805556
1 ; 277755555
2 ; 277755555
;41.5054
0 ; 277788889
4 ; 138869445
1 ; 277755555
3 ; 277805556
2 ; 277755555
;41.2637
0 ; 277788889
Start Iteration 11 (max: 200) with current residuum 632299083.2172145 (target: 385631.1102571073).
4 ; 138869445
2 ; 277755555
1 ; 277755555
3 ; 277805556
;41.6116
0 ; 277788889
4 ; 138869445
2 ; 277755555
3 ; 277805556
1 ; 277755555
;41.18
0 ; 277788889
Start Iteration 12 (max: 200) with current residuum 531084.8387879198 (target: 385631.1102571073).
4 ; 138869445
2 ; 277755555
3 ; 277805556
1 ; 277755555
;41.3538
0 ; 277788889
4 ; 138869445
3 ; 277805556
1 ; 277755555
2 ; 277755555
;41.5395
0 ; 277788889
Finished after 12 iterations with a residuum of 170885.64111577012 (target: 385631.1102571073).
Solved minimization problem (r = b - Ax) using CG in 1036409ms.

Optimization finished
svm_type c_svc
kernel_type linear
nr_class 2
total_sv 50000
rho 0.020951719005935843
label 1 -1
nr_sv 24932 25068
SV

Wrote model file with 50000 support vectors in 2862ms.
       JobID     AveRSS     MaxRSS    Elapsed MaxRSSTask  AveVMSize  MaxVMSize 
------------ ---------- ---------- ---------- ---------- ---------- ---------- 
4715                                 00:17:26                                  
4715.0         74117936    119464K   00:17:25          0  727135872    715660K 
