Loading openmpi/4.0.4-gcc-10.2
  Loading requirement: gcc/10.2
;0.514339
Read 50000 data points with 200 features in 3651ms using the libsvm parser.
Using OpenMP as backend.

5 ; 0
4 ; 138869445
3 ; 277805556
2 ; 277755555
1 ; 277755555
Setup for solving the optimization problem done in 177ms.
;43.9318
0 ; 277788889
Start Iteration 1 (max: 200) with current residuum 3.856311102571073e+17 (target: 385631.1102571073).
5 ; 0
4 ; 138869445
3 ; 277805556
2 ; 277755555
1 ; 277755555
;43.8629
0 ; 277788889
5 ; 0
4 ; 138869445
3 ; 277805556
2 ; 277755555
;43.7425
0 ; 277788889
1 ; 277755555
Start Iteration 2 (max: 200) with current residuum 525928356338223 (target: 385631.1102571073).
5 ; 0
4 ; 138869445
3 ; 277805556
1 ; 277755555
2 ; 277755555
;43.7973
0 ; 277788889
5 ; 0
4 ; 138869445
3 ; 277805556
2 ; 277755555
1 ; 277755555
;43.8031
0 ; 277788889
Start Iteration 3 (max: 200) with current residuum 146708042.52959037 (target: 385631.1102571073).
5 ; 0
4 ; 138869445
3 ; 277805556
2 ; 277755555
;43.7723
0 ; 277788889
1 ; 277755555
5 ; 0
4 ; 138869445
3 ; 277805556
2 ; 277755555
1 ; 277755555
;43.7588
0 ; 277788889
Start Iteration 4 (max: 200) with current residuum 25487105.6105978 (target: 385631.1102571073).
5 ; 0
4 ; 138869445
3 ; 277805556
1 ; 277755555
2 ; 277755555
;43.7072
0 ; 277788889
5 ; 0
4 ; 138869445
3 ; 277805556
2 ; 277755555
1 ; 277755555
;43.8807
0 ; 277788889
Start Iteration 5 (max: 200) with current residuum 11450619.102823634 (target: 385631.1102571073).
5 ; 0
4 ; 138869445
3 ; 277805556
2 ; 277755555
1 ; 277755555
;43.641
0 ; 277788889
5 ; 0
4 ; 138869445
3 ; 277805556
2 ; 277755555
1 ; 277755555
;43.833
0 ; 277788889
Start Iteration 6 (max: 200) with current residuum 180088995.15330604 (target: 385631.1102571073).
5 ; 0
4 ; 138869445
3 ; 277805556
2 ; 277755555
;43.5725
0 ; 277788889
1 ; 277755555
5 ; 0
4 ; 138869445
3 ; 277805556
2 ; 277755555
;43.8505
0 ; 277788889
1 ; 277755555
Start Iteration 7 (max: 200) with current residuum 4649604.597128236 (target: 385631.1102571073).
5 ; 0
4 ; 138869445
3 ; 277805556
;43.1793
0 ; 277788889
2 ; 277755555
1 ; 277755555
5 ; 0
4 ; 138869445
3 ; 277805556
;43.1989
0 ; 277788889
1 ; 277755555
2 ; 277755555
Start Iteration 8 (max: 200) with current residuum 3116446.583938754 (target: 385631.1102571073).
5 ; 0
4 ; 138869445
3 ; 277805556
;43.3961
0 ; 277788889
1 ; 277755555
2 ; 277755555
5 ; 0
4 ; 138869445
3 ; 277805556
2 ; 277755555
1 ; 277755555
;43.9682
0 ; 277788889
Start Iteration 9 (max: 200) with current residuum 4506430.8698946275 (target: 385631.1102571073).
5 ; 0
4 ; 138869445
3 ; 277805556
;43.523
0 ; 277788889
2 ; 277755555
1 ; 277755555
5 ; 0
4 ; 138869445
3 ; 277805556
2 ; 277755555
1 ; 277755555
;43.8243
0 ; 277788889
Start Iteration 10 (max: 200) with current residuum 1694340.7284053054 (target: 385631.1102571073).
5 ; 0
4 ; 138869445
3 ; 277805556
2 ; 277755555
;43.75
0 ; 277788889
1 ; 277755555
5 ; 0
4 ; 138869445
3 ; 277805556
1 ; 277755555
2 ; 277755555
;43.7425
0 ; 277788889
Start Iteration 11 (max: 200) with current residuum 838831703.0530187 (target: 385631.1102571073).
5 ; 0
4 ; 138869445
3 ; 277805556
1 ; 277755555
2 ; 277755555
;43.8968
0 ; 277788889
5 ; 0
4 ; 138869445
3 ; 277805556
1 ; 277755555
2 ; 277755555
;43.8347
0 ; 277788889
Start Iteration 12 (max: 200) with current residuum 530956.5126564583 (target: 385631.1102571073).
5 ; 0
4 ; 138869445
3 ; 277805556
2 ; 277755555
1 ; 277755555
;43.8065
0 ; 277788889
5 ; 0
4 ; 138869445
3 ; 277805556
;43.071
0 ; 277788889
2 ; 277755555
1 ; 277755555
Finished after 12 iterations with a residuum of 170885.6411113208 (target: 385631.1102571073).
Solved minimization problem (r = b - Ax) using CG in 1095131ms.

Optimization finished
svm_type c_svc
kernel_type linear
nr_class 2
total_sv 50000
rho 0.020954018922807904
label 1 -1
nr_sv 24932 25068
SV

Wrote model file with 50000 support vectors in 2858ms.
       JobID     AveRSS     MaxRSS    Elapsed MaxRSSTask  AveVMSize  MaxVMSize 
------------ ---------- ---------- ---------- ---------- ---------- ---------- 
4716                                 00:18:25                                  
4716.0         64689492    120108K   00:18:24          0  655647424    742156K 
