Loading openmpi/4.0.4-gcc-10.2
  Loading requirement: gcc/10.2
;0.581323
Read 50000 data points with 200 features in 3308ms using the libsvm parser.
Using OpenMP as backend.

6 ; 0
5 ; 0
4 ; 138869445
3 ; 277805556
Setup for solving the optimization problem done in 175ms.
;43.2394
0 ; 277788889
2 ; 277755555
1 ; 277755555
Start Iteration 1 (max: 200) with current residuum 3.856311102571073e+17 (target: 385631.1102571073).
5 ; 0
6 ; 0
4 ; 138869445
1 ; 277755555
2 ; 277755555
3 ; 277805556
;45.2053
0 ; 277788889
5 ; 0
6 ; 0
4 ; 138869445
;44.2547
0 ; 277788889
1 ; 277755555
3 ; 277805556
2 ; 277755555
Start Iteration 2 (max: 200) with current residuum 525928356338223.06 (target: 385631.1102571073).
6 ; 0
5 ; 0
4 ; 138869445
1 ; 277755555
;45.0712
0 ; 277788889
2 ; 277755555
3 ; 277805556
5 ; 0
6 ; 0
4 ; 138869445
1 ; 277755555
3 ; 277805556
;44.8853
0 ; 277788889
2 ; 277755555
Start Iteration 3 (max: 200) with current residuum 146708042.52959037 (target: 385631.1102571073).
5 ; 0
6 ; 0
4 ; 138869445
1 ; 277755555
2 ; 277755555
3 ; 277805556
;45.199
0 ; 277788889
5 ; 0
6 ; 0
4 ; 138869445
1 ; 277755555
3 ; 277805556
2 ; 277755555
;45.1447
0 ; 277788889
Start Iteration 4 (max: 200) with current residuum 25487105.61060256 (target: 385631.1102571073).
5 ; 0
6 ; 0
4 ; 138869445
1 ; 277755555
;44.8886
0 ; 277788889
3 ; 277805556
2 ; 277755555
5 ; 0
6 ; 0
4 ; 138869445
3 ; 277805556
1 ; 277755555
2 ; 277755555
;45.4381
0 ; 277788889
Start Iteration 5 (max: 200) with current residuum 11450664.055590652 (target: 385631.1102571073).
6 ; 0
5 ; 0
4 ; 138869445
;44.611
0 ; 277788889
1 ; 277755555
3 ; 277805556
2 ; 277755555
5 ; 0
6 ; 0
4 ; 138869445
;44.7057
0 ; 277788889
1 ; 277755555
3 ; 277805556
2 ; 277755555
Start Iteration 6 (max: 200) with current residuum 180077877.0245754 (target: 385631.1102571073).
5 ; 0
6 ; 0
4 ; 138869445
;44.9061
0 ; 277788889
3 ; 277805556
1 ; 277755555
2 ; 277755555
5 ; 0
6 ; 0
4 ; 138869445
1 ; 277755555
2 ; 277755555
3 ; 277805556
;45.1247
0 ; 277788889
Start Iteration 7 (max: 200) with current residuum 4649604.596914579 (target: 385631.1102571073).
5 ; 0
6 ; 0
4 ; 138869445
1 ; 277755555
;44.6948
0 ; 277788889
3 ; 277805556
2 ; 277755555
5 ; 0
6 ; 0
4 ; 138869445
;44.554
0 ; 277788889
3 ; 277805556
2 ; 277755555
1 ; 277755555
Start Iteration 8 (max: 200) with current residuum 3116446.6431803415 (target: 385631.1102571073).
5 ; 0
6 ; 0
4 ; 138869445
2 ; 277755555
3 ; 277805556
;44.8388
0 ; 277788889
1 ; 277755555
5 ; 0
6 ; 0
4 ; 138869445
3 ; 277805556
1 ; 277755555
;45.2391
0 ; 277788889
2 ; 277755555
Start Iteration 9 (max: 200) with current residuum 4507671.029594403 (target: 385631.1102571073).
6 ; 0
5 ; 0
4 ; 138869445
1 ; 277755555
3 ; 277805556
;44.9536
0 ; 277788889
2 ; 277755555
5 ; 0
6 ; 0
4 ; 138869445
2 ; 277755555
3 ; 277805556
1 ; 277755555
;45.2133
0 ; 277788889
Start Iteration 10 (max: 200) with current residuum 1694036.5577648673 (target: 385631.1102571073).
5 ; 0
6 ; 0
4 ; 138869445
1 ; 277755555
3 ; 277805556
2 ; 277755555
;45.294
0 ; 277788889
6 ; 0
5 ; 0
4 ; 138869445
2 ; 277755555
;44.8101
0 ; 277788889
1 ; 277755555
3 ; 277805556
Start Iteration 11 (max: 200) with current residuum 712911786.2287787 (target: 385631.1102571073).
5 ; 0
6 ; 0
4 ; 138869445
1 ; 277755555
;45.0194
0 ; 277788889
3 ; 277805556
2 ; 277755555
6 ; 0
5 ; 0
4 ; 138869445
2 ; 277755555
;44.9495
0 ; 277788889
3 ; 277805556
1 ; 277755555
Start Iteration 12 (max: 200) with current residuum 531028.545850091 (target: 385631.1102571073).
6 ; 0
5 ; 0
4 ; 138869445
3 ; 277805556
1 ; 277755555
;45.0062
0 ; 277788889
2 ; 277755555
5 ; 0
6 ; 0
4 ; 138869445
1 ; 277755555
;44.9348
0 ; 277788889
3 ; 277805556
2 ; 277755555
Finished after 12 iterations with a residuum of 170885.64111191477 (target: 385631.1102571073).
Solved minimization problem (r = b - Ax) using CG in 1128612ms.

Optimization finished
svm_type c_svc
kernel_type linear
nr_class 2
total_sv 50000
rho 0.02095320969087311
label 1 -1
nr_sv 24932 25068
SV

Wrote model file with 50000 support vectors in 2806ms.
       JobID     AveRSS     MaxRSS    Elapsed MaxRSSTask  AveVMSize  MaxVMSize 
------------ ---------- ---------- ---------- ---------- ---------- ---------- 
4717                                 00:18:57                                  
4717.0         50314680     68760K   00:18:56          0  598519232    718992K 
