Loading openmpi/4.0.4-gcc-10.2
  Loading requirement: gcc/10.2
;0.653943
Read 50000 data points with 200 features in 3325ms using the libsvm parser.
Using OpenMP as backend.

2 ; 156237500
4 ; 156237500
3 ; 156250000
1 ; 156250000
6 ; 156262500
Setup for solving the optimization problem done in 164ms.
;39.8272
0 ; 156250000
7 ; 156250000
5 ; 156237500
Start Iteration 1 (max: 200) with current residuum 3.856311102571077e+17 (target: 385631.1102571077).
2 ; 156237500
1 ; 156250000
6 ; 156262500
5 ; 156237500
3 ; 156250000
7 ; 156250000
;40.2134
0 ; 156250000
4 ; 156237500
5 ; 156237500
2 ; 156237500
6 ; 156262500
1 ; 156250000
7 ; 156250000
4 ; 156237500
3 ; 156250000
;40.3305
0 ; 156250000
Start Iteration 2 (max: 200) with current residuum 525928356338224.1 (target: 385631.1102571077).
6 ; 156262500
2 ; 156237500
1 ; 156250000
4 ; 156237500
7 ; 156250000
5 ; 156237500
3 ; 156250000
;40.4789
0 ; 156250000
2 ; 156237500
6 ; 156262500
7 ; 156250000
5 ; 156237500
3 ; 156250000
4 ; 156237500
;40.6747
0 ; 156250000
1 ; 156250000
Start Iteration 3 (max: 200) with current residuum 146708042.52958977 (target: 385631.1102571077).
6 ; 156262500
2 ; 156237500
4 ; 156237500
7 ; 156250000
3 ; 156250000
5 ; 156237500
1 ; 156250000
;40.5309
0 ; 156250000
2 ; 156237500
6 ; 156262500
1 ; 156250000
5 ; 156237500
4 ; 156237500
7 ; 156250000
3 ; 156250000
;40.4344
0 ; 156250000
Start Iteration 4 (max: 200) with current residuum 25487105.598310046 (target: 385631.1102571077).
1 ; 156250000
6 ; 156262500
5 ; 156237500
2 ; 156237500
4 ; 156237500
7 ; 156250000
3 ; 156250000
;40.335
0 ; 156250000
2 ; 156237500
6 ; 156262500
7 ; 156250000
1 ; 156250000
5 ; 156237500
4 ; 156237500
3 ; 156250000
;40.3577
0 ; 156250000
Start Iteration 5 (max: 200) with current residuum 11342463.09396724 (target: 385631.1102571077).
2 ; 156237500
6 ; 156262500
5 ; 156237500
4 ; 156237500
;40.1302
0 ; 156250000
3 ; 156250000
1 ; 156250000
7 ; 156250000
6 ; 156262500
2 ; 156237500
7 ; 156250000
5 ; 156237500
4 ; 156237500
1 ; 156250000
3 ; 156250000
;40.3868
0 ; 156250000
Start Iteration 6 (max: 200) with current residuum 211860397.105353 (target: 385631.1102571077).
6 ; 156262500
1 ; 156250000
2 ; 156237500
7 ; 156250000
3 ; 156250000
;40.2386
0 ; 156250000
5 ; 156237500
4 ; 156237500
6 ; 156262500
2 ; 156237500
1 ; 156250000
7 ; 156250000
3 ; 156250000
5 ; 156237500
4 ; 156237500
;40.5984
0 ; 156250000
Start Iteration 7 (max: 200) with current residuum 4649605.211118808 (target: 385631.1102571077).
2 ; 156237500
6 ; 156262500
3 ; 156250000
1 ; 156250000
4 ; 156237500
5 ; 156237500
7 ; 156250000
;41.0239
0 ; 156250000
6 ; 156262500
2 ; 156237500
7 ; 156250000
1 ; 156250000
4 ; 156237500
5 ; 156237500
;40.4295
0 ; 156250000
3 ; 156250000
Start Iteration 8 (max: 200) with current residuum 3116339.3564271634 (target: 385631.1102571077).
5 ; 156237500
3 ; 156250000
2 ; 156237500
6 ; 156262500
7 ; 156250000
;40.2666
0 ; 156250000
1 ; 156250000
4 ; 156237500
2 ; 156237500
;39.6297
0 ; 156250000
5 ; 156237500
7 ; 156250000
6 ; 156262500
1 ; 156250000
4 ; 156237500
3 ; 156250000
Start Iteration 9 (max: 200) with current residuum 2238551.1716411 (target: 385631.1102571077).
2 ; 156237500
6 ; 156262500
3 ; 156250000
5 ; 156237500
1 ; 156250000
4 ; 156237500
7 ; 156250000
;40.2587
0 ; 156250000
6 ; 156262500
2 ; 156237500
5 ; 156237500
1 ; 156250000
3 ; 156250000
;40.4664
0 ; 156250000
4 ; 156237500
7 ; 156250000
Start Iteration 10 (max: 200) with current residuum 2735895.3722977177 (target: 385631.1102571077).
6 ; 156262500
;39.3847
0 ; 156250000
2 ; 156237500
4 ; 156237500
1 ; 156250000
5 ; 156237500
7 ; 156250000
3 ; 156250000
2 ; 156237500
6 ; 156262500
7 ; 156250000
5 ; 156237500
3 ; 156250000
4 ; 156237500
1 ; 156250000
;41.0105
0 ; 156250000
Start Iteration 11 (max: 200) with current residuum 464679756.60665715 (target: 385631.1102571077).
6 ; 156262500
2 ; 156237500
4 ; 156237500
3 ; 156250000
;40.2511
0 ; 156250000
7 ; 156250000
5 ; 156237500
1 ; 156250000
2 ; 156237500
6 ; 156262500
1 ; 156250000
3 ; 156250000
7 ; 156250000
5 ; 156237500
;40.5326
0 ; 156250000
4 ; 156237500
Start Iteration 12 (max: 200) with current residuum 531265.1980129612 (target: 385631.1102571077).
6 ; 156262500
2 ; 156237500
1 ; 156250000
5 ; 156237500
4 ; 156237500
3 ; 156250000
;40.567
0 ; 156250000
7 ; 156250000
3 ; 156250000
6 ; 156262500
4 ; 156237500
2 ; 156237500
1 ; 156250000
7 ; 156250000
5 ; 156237500
;40.4588
0 ; 156250000
Finished after 12 iterations with a residuum of 170885.6411792409 (target: 385631.1102571077).
Solved minimization problem (r = b - Ax) using CG in 1012949ms.

Optimization finished
svm_type c_svc
kernel_type linear
nr_class 2
total_sv 50000
rho 0.02093788162270016
label 1 -1
nr_sv 24932 25068
SV

Wrote model file with 50000 support vectors in 2866ms.
       JobID     AveRSS     MaxRSS    Elapsed MaxRSSTask  AveVMSize  MaxVMSize 
------------ ---------- ---------- ---------- ---------- ---------- ---------- 
4718                                 00:17:02                                  
4718.0        80242.50K    261524K   00:17:01          0    754183K    992100K 
