Loading openmpi/4.0.4-gcc-10.2
  Loading requirement: gcc/10.2
;0.4403
Read 50000 data points with 200 features in 3122ms using the libsvm parser.
Using OpenMP as backend.

8 ; 0
5 ; 156237500
6 ; 156262500
7 ; 156250000
1 ; 156250000
4 ; 156237500
2 ; 156237500
3 ; 156250000
Setup for solving the optimization problem done in 178ms.
;25.6353
0 ; 156250000
Start Iteration 1 (max: 200) with current residuum 3.856311102571077e+17 (target: 385631.1102571077).
8 ; 0
6 ; 156262500
5 ; 156237500
7 ; 156250000
4 ; 156237500
1 ; 156250000
2 ; 156237500
3 ; 156250000
;25.8037
0 ; 156250000
8 ; 0
5 ; 156237500
6 ; 156262500
7 ; 156250000
4 ; 156237500
1 ; 156250000
2 ; 156237500
3 ; 156250000
;25.6645
0 ; 156250000
Start Iteration 2 (max: 200) with current residuum 525928356338224.2 (target: 385631.1102571077).
8 ; 0
6 ; 156262500
5 ; 156237500
7 ; 156250000
1 ; 156250000
4 ; 156237500
2 ; 156237500
3 ; 156250000
;25.7641
0 ; 156250000
8 ; 0
6 ; 156262500
5 ; 156237500
7 ; 156250000
1 ; 156250000
4 ; 156237500
2 ; 156237500
3 ; 156250000
;25.5934
0 ; 156250000
Start Iteration 3 (max: 200) with current residuum 146708042.5295897 (target: 385631.1102571077).
8 ; 0
5 ; 156237500
6 ; 156262500
7 ; 156250000
1 ; 156250000
2 ; 156237500
4 ; 156237500
;25.7871
0 ; 156250000
3 ; 156250000
8 ; 0
6 ; 156262500
5 ; 156237500
7 ; 156250000
4 ; 156237500
1 ; 156250000
2 ; 156237500
3 ; 156250000
;25.8064
0 ; 156250000
Start Iteration 4 (max: 200) with current residuum 25487105.59543424 (target: 385631.1102571077).
8 ; 0
6 ; 156262500
5 ; 156237500
7 ; 156250000
1 ; 156250000
4 ; 156237500
2 ; 156237500
3 ; 156250000
;25.8237
0 ; 156250000
8 ; 0
6 ; 156262500
5 ; 156237500
7 ; 156250000
1 ; 156250000
2 ; 156237500
4 ; 156237500
3 ; 156250000
;25.7016
0 ; 156250000
Start Iteration 5 (max: 200) with current residuum 11317155.077010652 (target: 385631.1102571077).
8 ; 0
6 ; 156262500
5 ; 156237500
7 ; 156250000
1 ; 156250000
4 ; 156237500
2 ; 156237500
3 ; 156250000
;25.7226
0 ; 156250000
8 ; 0
6 ; 156262500
5 ; 156237500
7 ; 156250000
4 ; 156237500
1 ; 156250000
2 ; 156237500
3 ; 156250000
;25.5607
0 ; 156250000
Start Iteration 6 (max: 200) with current residuum 221095124.9027673 (target: 385631.1102571077).
8 ; 0
5 ; 156237500
6 ; 156262500
7 ; 156250000
1 ; 156250000
4 ; 156237500
2 ; 156237500
3 ; 156250000
;25.7021
0 ; 156250000
8 ; 0
6 ; 156262500
5 ; 156237500
7 ; 156250000
1 ; 156250000
4 ; 156237500
2 ; 156237500
3 ; 156250000
;25.7923
0 ; 156250000
Start Iteration 7 (max: 200) with current residuum 4649605.39173732 (target: 385631.1102571077).
8 ; 0
6 ; 156262500
5 ; 156237500
7 ; 156250000
1 ; 156250000
2 ; 156237500
4 ; 156237500
3 ; 156250000
;25.799
0 ; 156250000
8 ; 0
5 ; 156237500
6 ; 156262500
7 ; 156250000
1 ; 156250000
4 ; 156237500
2 ; 156237500
3 ; 156250000
;25.7189
0 ; 156250000
Start Iteration 8 (max: 200) with current residuum 3116360.000032568 (target: 385631.1102571077).
8 ; 0
6 ; 156262500
5 ; 156237500
7 ; 156250000
1 ; 156250000
2 ; 156237500
4 ; 156237500
3 ; 156250000
;25.9195
0 ; 156250000
8 ; 0
6 ; 156262500
5 ; 156237500
7 ; 156250000
1 ; 156250000
2 ; 156237500
4 ; 156237500
3 ; 156250000
;25.7688
0 ; 156250000
Start Iteration 9 (max: 200) with current residuum 2678755.33509383 (target: 385631.1102571077).
8 ; 0
6 ; 156262500
5 ; 156237500
7 ; 156250000
1 ; 156250000
4 ; 156237500
2 ; 156237500
3 ; 156250000
;25.7838
0 ; 156250000
8 ; 0
6 ; 156262500
5 ; 156237500
7 ; 156250000
1 ; 156250000
4 ; 156237500
2 ; 156237500
3 ; 156250000
;25.792
0 ; 156250000
Start Iteration 10 (max: 200) with current residuum 2278286.079735643 (target: 385631.1102571077).
8 ; 0
5 ; 156237500
6 ; 156262500
7 ; 156250000
4 ; 156237500
1 ; 156250000
2 ; 156237500
3 ; 156250000
;25.8586
0 ; 156250000
8 ; 0
5 ; 156237500
6 ; 156262500
7 ; 156250000
4 ; 156237500
1 ; 156250000
2 ; 156237500
3 ; 156250000
;25.7156
0 ; 156250000
Start Iteration 11 (max: 200) with current residuum 273674904.79463995 (target: 385631.1102571077).
8 ; 0
6 ; 156262500
5 ; 156237500
7 ; 156250000
1 ; 156250000
4 ; 156237500
2 ; 156237500
;25.4487
0 ; 156250000
3 ; 156250000
8 ; 0
6 ; 156262500
5 ; 156237500
7 ; 156250000
4 ; 156237500
1 ; 156250000
2 ; 156237500
;25.4924
0 ; 156250000
3 ; 156250000
Start Iteration 12 (max: 200) with current residuum 531690.4285506838 (target: 385631.1102571077).
8 ; 0
5 ; 156237500
6 ; 156262500
7 ; 156250000
1 ; 156250000
4 ; 156237500
2 ; 156237500
;25.6287
0 ; 156250000
3 ; 156250000
8 ; 0
6 ; 156262500
5 ; 156237500
7 ; 156250000
1 ; 156250000
4 ; 156237500
2 ; 156237500
;25.5613
0 ; 156250000
3 ; 156250000
Finished after 12 iterations with a residuum of 170885.64115389367 (target: 385631.1102571077).
Solved minimization problem (r = b - Ax) using CG in 643733ms.

Optimization finished
svm_type c_svc
kernel_type linear
nr_class 2
total_sv 50000
rho 0.02094032784388844
label 1 -1
nr_sv 24932 25068
SV

Wrote model file with 50000 support vectors in 3048ms.
       JobID     AveRSS     MaxRSS    Elapsed MaxRSSTask  AveVMSize  MaxVMSize 
------------ ---------- ---------- ---------- ---------- ---------- ---------- 
4719                                 00:10:54                                  
4719.0         57341724    107836K   00:10:53          0  673847040    738648K 
