Loading openmpi/4.0.4-gcc-10.2
  Loading requirement: gcc/10.2
;0.27943
Read 10000 data points with 200 features in 736ms using the libsvm parser.
Using OpenMP as backend.

9 ; 0
8 ; 0
7 ; 6250000
6 ; 6252500
5 ; 6247500
3 ; 6250000
1 ; 6250000
2 ; 6247500
Setup for solving the optimization problem done in 143ms.
;1.10011
0 ; 6250000
4 ; 6247500
Start Iteration 1 (max: 200) with current residuum 4006902794489163.5 (target: 4006.9027944891636).
8 ; 0
9 ; 0
7 ; 6250000
6 ; 6252500
5 ; 6247500
1 ; 6250000
3 ; 6250000
2 ; 6247500
;1.09887
0 ; 6250000
4 ; 6247500
8 ; 0
9 ; 0
7 ; 6250000
5 ; 6247500
6 ; 6252500
3 ; 6250000
2 ; 6247500
1 ; 6250000
;1.1152
0 ; 6250000
4 ; 6247500
Start Iteration 2 (max: 200) with current residuum 3665335104454.558 (target: 4006.9027944891636).
9 ; 0
8 ; 0
5 ; 6247500
7 ; 6250000
6 ; 6252500
3 ; 6250000
1 ; 6250000
4 ; 6247500
;1.08489
0 ; 6250000
2 ; 6247500
9 ; 0
8 ; 0
5 ; 6247500
7 ; 6250000
6 ; 6252500
;1.04995
0 ; 6250000
3 ; 6250000
2 ; 6247500
4 ; 6247500
1 ; 6250000
Start Iteration 3 (max: 200) with current residuum 2130138.382066755 (target: 4006.9027944891636).
8 ; 0
9 ; 0
6 ; 6252500
5 ; 6247500
7 ; 6250000
3 ; 6250000
4 ; 6247500
1 ; 6250000
;1.11588
0 ; 6250000
2 ; 6247500
9 ; 0
8 ; 0
6 ; 6252500
5 ; 6247500
7 ; 6250000
3 ; 6250000
1 ; 6250000
2 ; 6247500
4 ; 6247500
;1.12923
0 ; 6250000
Start Iteration 4 (max: 200) with current residuum 337178.19725691265 (target: 4006.9027944891636).
9 ; 0
8 ; 0
5 ; 6247500
6 ; 6252500
7 ; 6250000
3 ; 6250000
4 ; 6247500
2 ; 6247500
1 ; 6250000
;1.1153
0 ; 6250000
8 ; 0
9 ; 0
6 ; 6252500
5 ; 6247500
7 ; 6250000
1 ; 6250000
3 ; 6250000
4 ; 6247500
2 ; 6247500
;1.15816
0 ; 6250000
Start Iteration 5 (max: 200) with current residuum 88900.57236509873 (target: 4006.9027944891636).
9 ; 0
8 ; 0
5 ; 6247500
6 ; 6252500
7 ; 6250000
3 ; 6250000
4 ; 6247500
;1.11924
0 ; 6250000
2 ; 6247500
1 ; 6250000
9 ; 0
8 ; 0
6 ; 6252500
5 ; 6247500
7 ; 6250000
3 ; 6250000
4 ; 6247500
;1.08363
0 ; 6250000
2 ; 6247500
1 ; 6250000
Start Iteration 6 (max: 200) with current residuum 56936984.779412724 (target: 4006.9027944891636).
8 ; 0
9 ; 0
5 ; 6247500
6 ; 6252500
7 ; 6250000
4 ; 6247500
3 ; 6250000
;1.09076
0 ; 6250000
2 ; 6247500
1 ; 6250000
9 ; 0
8 ; 0
6 ; 6252500
5 ; 6247500
7 ; 6250000
3 ; 6250000
;1.08662
0 ; 6250000
2 ; 6247500
4 ; 6247500
1 ; 6250000
Start Iteration 7 (max: 200) with current residuum 53302.749901092786 (target: 4006.9027944891636).
8 ; 0
9 ; 0
6 ; 6252500
5 ; 6247500
7 ; 6250000
;1.01832
0 ; 6250000
3 ; 6250000
2 ; 6247500
1 ; 6250000
4 ; 6247500
9 ; 0
8 ; 0
6 ; 6252500
5 ; 6247500
7 ; 6250000
3 ; 6250000
4 ; 6247500
;1.08728
0 ; 6250000
1 ; 6250000
2 ; 6247500
Start Iteration 8 (max: 200) with current residuum 30747.284417479157 (target: 4006.9027944891636).
8 ; 0
9 ; 0
6 ; 6252500
5 ; 6247500
7 ; 6250000
3 ; 6250000
1 ; 6250000
;1.0582
0 ; 6250000
4 ; 6247500
2 ; 6247500
8 ; 0
9 ; 0
7 ; 6250000
5 ; 6247500
6 ; 6252500
;1.093
0 ; 6250000
4 ; 6247500
3 ; 6250000
1 ; 6250000
2 ; 6247500
Start Iteration 9 (max: 200) with current residuum 15920.848043268596 (target: 4006.9027944891636).
9 ; 0
8 ; 0
6 ; 6252500
5 ; 6247500
7 ; 6250000
3 ; 6250000
;1.04168
0 ; 6250000
1 ; 6250000
2 ; 6247500
4 ; 6247500
9 ; 0
8 ; 0
5 ; 6247500
6 ; 6252500
7 ; 6250000
4 ; 6247500
;0.9954
0 ; 6250000
3 ; 6250000
2 ; 6247500
1 ; 6250000
Start Iteration 10 (max: 200) with current residuum 256079.76782562362 (target: 4006.9027944891636).
8 ; 0
9 ; 0
5 ; 6247500
6 ; 6252500
7 ; 6250000
;1.0647
0 ; 6250000
2 ; 6247500
3 ; 6250000
1 ; 6250000
4 ; 6247500
9 ; 0
8 ; 0
6 ; 6252500
5 ; 6247500
7 ; 6250000
3 ; 6250000
1 ; 6250000
2 ; 6247500
;1.09357
0 ; 6250000
4 ; 6247500
Start Iteration 11 (max: 200) with current residuum 8405.731798838377 (target: 4006.9027944891636).
8 ; 0
9 ; 0
5 ; 6247500
6 ; 6252500
7 ; 6250000
;1.06773
0 ; 6250000
2 ; 6247500
4 ; 6247500
3 ; 6250000
1 ; 6250000
9 ; 0
8 ; 0
5 ; 6247500
6 ; 6252500
7 ; 6250000
3 ; 6250000
2 ; 6247500
;1.07788
0 ; 6250000
4 ; 6247500
1 ; 6250000
Start Iteration 12 (max: 200) with current residuum 16997.91363027079 (target: 4006.9027944891636).
8 ; 0
9 ; 0
5 ; 6247500
6 ; 6252500
7 ; 6250000
3 ; 6250000
2 ; 6247500
;1.11584
0 ; 6250000
4 ; 6247500
1 ; 6250000
8 ; 0
9 ; 0
5 ; 6247500
6 ; 6252500
7 ; 6250000
1 ; 6250000
3 ; 6250000
;1.0918
0 ; 6250000
4 ; 6247500
2 ; 6247500
Finished after 12 iterations with a residuum of 1776.9876411264163 (target: 4006.9027944891636).
Solved minimization problem (r = b - Ax) using CG in 28899ms.

Optimization finished
svm_type c_svc
kernel_type linear
nr_class 2
total_sv 10000
rho -0.0011598629391933457
label 1 -1
nr_sv 5066 4934
SV

Wrote model file with 10000 support vectors in 1057ms.
       JobID     AveRSS     MaxRSS    Elapsed MaxRSSTask  AveVMSize  MaxVMSize 
------------ ---------- ---------- ---------- ---------- ---------- ---------- 
4620                                 00:00:33                                  
4620.0         19970458     32912K   00:00:32          0    608856K    701096K 
