Loading openmpi/4.0.4-gcc-10.2
  Loading requirement: gcc/10.2
;0.251238
Read 10000 data points with 200 features in 739ms using the libsvm parser.
Using OpenMP as backend.

8 ; 0
10 ; 0
9 ; 0
6 ; 6252500
7 ; 6250000
3 ; 6250000
Setup for solving the optimization problem done in 161ms.
;1.26299
0 ; 6250000
1 ; 6250000
5 ; 6247500
4 ; 6247500
2 ; 6247500
Start Iteration 1 (max: 200) with current residuum 4006902794489164 (target: 4006.902794489164).
8 ; 0
9 ; 0
10 ; 0
7 ; 6250000
6 ; 6252500
1 ; 6250000
;1.28109
0 ; 6250000
3 ; 6250000
4 ; 6247500
2 ; 6247500
5 ; 6247500
8 ; 0
9 ; 0
10 ; 0
6 ; 6252500
7 ; 6250000
3 ; 6250000
;1.26094
0 ; 6250000
1 ; 6250000
2 ; 6247500
4 ; 6247500
5 ; 6247500
Start Iteration 2 (max: 200) with current residuum 3665335104454.559 (target: 4006.902794489164).
8 ; 0
9 ; 0
10 ; 0
6 ; 6252500
7 ; 6250000
3 ; 6250000
;1.27245
0 ; 6250000
2 ; 6247500
1 ; 6250000
4 ; 6247500
5 ; 6247500
8 ; 0
9 ; 0
10 ; 0
6 ; 6252500
7 ; 6250000
;1.20446
0 ; 6250000
5 ; 6247500
3 ; 6250000
4 ; 6247500
1 ; 6250000
2 ; 6247500
Start Iteration 3 (max: 200) with current residuum 2130138.382066764 (target: 4006.902794489164).
8 ; 0
9 ; 0
10 ; 0
6 ; 6252500
7 ; 6250000
3 ; 6250000
1 ; 6250000
;1.28723
0 ; 6250000
4 ; 6247500
2 ; 6247500
5 ; 6247500
8 ; 0
10 ; 0
9 ; 0
6 ; 6252500
7 ; 6250000
;1.0609
0 ; 6250000
2 ; 6247500
3 ; 6250000
5 ; 6247500
4 ; 6247500
1 ; 6250000
Start Iteration 4 (max: 200) with current residuum 337178.1972561169 (target: 4006.902794489164).
8 ; 0
9 ; 0
10 ; 0
6 ; 6252500
7 ; 6250000
5 ; 6247500
3 ; 6250000
;1.28085
0 ; 6250000
2 ; 6247500
4 ; 6247500
1 ; 6250000
8 ; 0
9 ; 0
10 ; 0
6 ; 6252500
7 ; 6250000
2 ; 6247500
3 ; 6250000
5 ; 6247500
;1.28592
0 ; 6250000
4 ; 6247500
1 ; 6250000
Start Iteration 5 (max: 200) with current residuum 88895.76654220595 (target: 4006.902794489164).
9 ; 0
10 ; 0
8 ; 0
6 ; 6252500
7 ; 6250000
3 ; 6250000
;1.23869
0 ; 6250000
4 ; 6247500
5 ; 6247500
2 ; 6247500
1 ; 6250000
8 ; 0
9 ; 0
10 ; 0
6 ; 6252500
7 ; 6250000
1 ; 6250000
;1.25294
0 ; 6250000
4 ; 6247500
3 ; 6250000
2 ; 6247500
5 ; 6247500
Start Iteration 6 (max: 200) with current residuum 1672817.8685929251 (target: 4006.902794489164).
8 ; 0
9 ; 0
10 ; 0
6 ; 6252500
7 ; 6250000
;1.14468
0 ; 6250000
3 ; 6250000
4 ; 6247500
2 ; 6247500
5 ; 6247500
1 ; 6250000
8 ; 0
9 ; 0
10 ; 0
6 ; 6252500
7 ; 6250000
5 ; 6247500
3 ; 6250000
;1.27194
0 ; 6250000
4 ; 6247500
2 ; 6247500
1 ; 6250000
Start Iteration 7 (max: 200) with current residuum 55005.74365890692 (target: 4006.902794489164).
8 ; 0
10 ; 0
9 ; 0
6 ; 6252500
7 ; 6250000
3 ; 6250000
5 ; 6247500
;1.29577
0 ; 6250000
2 ; 6247500
1 ; 6250000
4 ; 6247500
8 ; 0
9 ; 0
10 ; 0
6 ; 6252500
7 ; 6250000
3 ; 6250000
4 ; 6247500
;1.31048
0 ; 6250000
1 ; 6250000
2 ; 6247500
5 ; 6247500
Start Iteration 8 (max: 200) with current residuum 30747.31852658452 (target: 4006.902794489164).
8 ; 0
9 ; 0
10 ; 0
6 ; 6252500
7 ; 6250000
1 ; 6250000
5 ; 6247500
2 ; 6247500
3 ; 6250000
4 ; 6247500
;1.34544
0 ; 6250000
8 ; 0
9 ; 0
10 ; 0
7 ; 6250000
6 ; 6252500
5 ; 6247500
;1.25207
0 ; 6250000
2 ; 6247500
3 ; 6250000
1 ; 6250000
4 ; 6247500
Start Iteration 9 (max: 200) with current residuum 16456.377815297226 (target: 4006.902794489164).
8 ; 0
9 ; 0
10 ; 0
6 ; 6252500
7 ; 6250000
;1.25743
2 ; 6247500
3 ; 6250000
5 ; 6247500
1 ; 6250000
0 ; 6250000
4 ; 6247500
9 ; 0
10 ; 0
8 ; 0
6 ; 6252500
7 ; 6250000
3 ; 6250000
5 ; 6247500
;1.29005
0 ; 6250000
2 ; 6247500
1 ; 6250000
4 ; 6247500
Start Iteration 10 (max: 200) with current residuum 170255.16035984276 (target: 4006.902794489164).
8 ; 0
9 ; 0
10 ; 0
7 ; 6250000
6 ; 6252500
;1.0757
0 ; 6250000
2 ; 6247500
4 ; 6247500
3 ; 6250000
5 ; 6247500
1 ; 6250000
8 ; 0
9 ; 0
10 ; 0
6 ; 6252500
7 ; 6250000
3 ; 6250000
;1.23979
0 ; 6250000
2 ; 6247500
5 ; 6247500
4 ; 6247500
1 ; 6250000
Start Iteration 11 (max: 200) with current residuum 5631.173292887207 (target: 4006.902794489164).
8 ; 0
9 ; 0
10 ; 0
6 ; 6252500
7 ; 6250000
5 ; 6247500
2 ; 6247500
;1.27897
0 ; 6250000
3 ; 6250000
4 ; 6247500
1 ; 6250000
8 ; 0
9 ; 0
10 ; 0
6 ; 6252500
7 ; 6250000
3 ; 6250000
5 ; 6247500
1 ; 6250000
;1.31326
0 ; 6250000
4 ; 6247500
2 ; 6247500
Start Iteration 12 (max: 200) with current residuum 3276481.914053839 (target: 4006.902794489164).
8 ; 0
9 ; 0
10 ; 0
6 ; 6252500
7 ; 6250000
;1.20619
0 ; 6250000
1 ; 6250000
2 ; 6247500
3 ; 6250000
4 ; 6247500
5 ; 6247500
9 ; 0
10 ; 0
8 ; 0
6 ; 6252500
7 ; 6250000
;1.21409
0 ; 6250000
5 ; 6247500
4 ; 6247500
3 ; 6250000
2 ; 6247500
1 ; 6250000
Finished after 12 iterations with a residuum of 1777.0361337453687 (target: 4006.902794489164).
Solved minimization problem (r = b - Ax) using CG in 34237ms.

Optimization finished
svm_type c_svc
kernel_type linear
nr_class 2
total_sv 10000
rho -0.0027170157577813825
label 1 -1
nr_sv 5066 4934
SV

Wrote model file with 10000 support vectors in 861ms.
       JobID     AveRSS     MaxRSS    Elapsed MaxRSSTask  AveVMSize  MaxVMSize 
------------ ---------- ---------- ---------- ---------- ---------- ---------- 
4621                                 00:00:39                                  
4621.0         19243752     32860K   00:00:38          0  591526080    705204K 
