Loading openmpi/4.0.4-gcc-10.2
  Loading requirement: gcc/10.2
;0.269133
Read 10000 data points with 200 features in 645ms using the libsvm parser.
Using OpenMP as backend.

11 ; 0
8 ; 0
9 ; 0
10 ; 0
7 ; 6250000
6 ; 6252500
2 ; 6247500
3 ; 6250000
4 ; 6247500
1 ; 6250000
5 ; 6247500
Setup for solving the optimization problem done in 204ms.
;1.27199
0 ; 6250000
Start Iteration 1 (max: 200) with current residuum 4006902794489164.5 (target: 4006.9027944891645).
11 ; 0
8 ; 0
9 ; 0
10 ; 0
6 ; 6252500
7 ; 6250000
2 ; 6247500
1 ; 6250000
5 ; 6247500
;1.28842
0 ; 6250000
4 ; 6247500
3 ; 6250000
8 ; 0
9 ; 0
10 ; 0
11 ; 0
7 ; 6250000
6 ; 6252500
2 ; 6247500
5 ; 6247500
1 ; 6250000
3 ; 6250000
4 ; 6247500
;1.30809
0 ; 6250000
Start Iteration 2 (max: 200) with current residuum 3665335104454.559 (target: 4006.9027944891645).
11 ; 0
8 ; 0
9 ; 0
10 ; 0
7 ; 6250000
6 ; 6252500
;1.0003
0 ; 6250000
4 ; 6247500
2 ; 6247500
5 ; 6247500
1 ; 6250000
3 ; 6250000
11 ; 0
8 ; 0
9 ; 0
10 ; 0
7 ; 6250000
6 ; 6252500
5 ; 6247500
2 ; 6247500
;1.26647
0 ; 6250000
4 ; 6247500
3 ; 6250000
1 ; 6250000
Start Iteration 3 (max: 200) with current residuum 2130138.382066754 (target: 4006.9027944891645).
11 ; 0
8 ; 0
9 ; 0
10 ; 0
7 ; 6250000
6 ; 6252500
;1.23165
0 ; 6250000
4 ; 6247500
5 ; 6247500
2 ; 6247500
3 ; 6250000
1 ; 6250000
8 ; 0
9 ; 0
10 ; 0
11 ; 0
7 ; 6250000
6 ; 6252500
2 ; 6247500
5 ; 6247500
1 ; 6250000
3 ; 6250000
;1.33205
0 ; 6250000
4 ; 6247500
Start Iteration 4 (max: 200) with current residuum 337178.1972561205 (target: 4006.9027944891645).
8 ; 0
11 ; 0
9 ; 0
10 ; 0
;0.49908
0 ; 6250000
7 ; 6250000
6 ; 6252500
5 ; 6247500
2 ; 6247500
4 ; 6247500
3 ; 6250000
1 ; 6250000
8 ; 0
11 ; 0
9 ; 0
10 ; 0
7 ; 6250000
6 ; 6252500
2 ; 6247500
;1.25751
0 ; 6250000
1 ; 6250000
5 ; 6247500
4 ; 6247500
3 ; 6250000
Start Iteration 5 (max: 200) with current residuum 88895.78010817537 (target: 4006.9027944891645).
11 ; 0
8 ; 0
9 ; 0
10 ; 0
6 ; 6252500
7 ; 6250000
2 ; 6247500
3 ; 6250000
5 ; 6247500
;1.29381
0 ; 6250000
4 ; 6247500
1 ; 6250000
9 ; 0
10 ; 0
8 ; 0
11 ; 0
6 ; 6252500
7 ; 6250000
2 ; 6247500
5 ; 6247500
1 ; 6250000
;1.29275
0 ; 6250000
4 ; 6247500
3 ; 6250000
Start Iteration 6 (max: 200) with current residuum 1907199.7385756557 (target: 4006.9027944891645).
8 ; 0
11 ; 0
9 ; 0
10 ; 0
7 ; 6250000
6 ; 6252500
2 ; 6247500
5 ; 6247500
;1.28539
0 ; 6250000
3 ; 6250000
1 ; 6250000
4 ; 6247500
11 ; 0
9 ; 0
10 ; 0
8 ; 0
6 ; 6252500
7 ; 6250000
;1.19715
0 ; 6250000
2 ; 6247500
5 ; 6247500
1 ; 6250000
4 ; 6247500
3 ; 6250000
Start Iteration 7 (max: 200) with current residuum 54784.355752207 (target: 4006.9027944891645).
9 ; 0
10 ; 0
8 ; 0
11 ; 0
7 ; 6250000
6 ; 6252500
2 ; 6247500
4 ; 6247500
1 ; 6250000
;1.29457
0 ; 6250000
3 ; 6250000
5 ; 6247500
11 ; 0
8 ; 0
9 ; 0
10 ; 0
7 ; 6250000
6 ; 6252500
2 ; 6247500
5 ; 6247500
4 ; 6247500
1 ; 6250000
3 ; 6250000
;1.32947
0 ; 6250000
Start Iteration 8 (max: 200) with current residuum 30747.33974430278 (target: 4006.9027944891645).
8 ; 0
9 ; 0
11 ; 0
10 ; 0
7 ; 6250000
6 ; 6252500
5 ; 6247500
2 ; 6247500
;1.27619
0 ; 6250000
4 ; 6247500
1 ; 6250000
3 ; 6250000
9 ; 0
10 ; 0
11 ; 0
8 ; 0
7 ; 6250000
6 ; 6252500
2 ; 6247500
;1.215
0 ; 6250000
5 ; 6247500
4 ; 6247500
1 ; 6250000
3 ; 6250000
Start Iteration 9 (max: 200) with current residuum 16789.770573559705 (target: 4006.9027944891645).
8 ; 0
9 ; 0
10 ; 0
11 ; 0
7 ; 6250000
6 ; 6252500
5 ; 6247500
2 ; 6247500
;1.27066
0 ; 6250000
1 ; 6250000
4 ; 6247500
3 ; 6250000
11 ; 0
8 ; 0
9 ; 0
10 ; 0
7 ; 6250000
6 ; 6252500
2 ; 6247500
;1.2352
0 ; 6250000
5 ; 6247500
3 ; 6250000
1 ; 6250000
4 ; 6247500
Start Iteration 10 (max: 200) with current residuum 141623.177688498 (target: 4006.9027944891645).
11 ; 0
8 ; 0
10 ; 0
9 ; 0
7 ; 6250000
6 ; 6252500
;1.0427
0 ; 6250000
2 ; 6247500
3 ; 6250000
5 ; 6247500
1 ; 6250000
4 ; 6247500
8 ; 0
11 ; 0
9 ; 0
10 ; 0
7 ; 6250000
6 ; 6252500
2 ; 6247500
5 ; 6247500
4 ; 6247500
1 ; 6250000
3 ; 6250000
;1.30509
0 ; 6250000
Start Iteration 11 (max: 200) with current residuum 5651.5635825953605 (target: 4006.9027944891645).
11 ; 0
9 ; 0
10 ; 0
8 ; 0
7 ; 6250000
6 ; 6252500
5 ; 6247500
2 ; 6247500
;1.27595
0 ; 6250000
4 ; 6247500
3 ; 6250000
1 ; 6250000
11 ; 0
8 ; 0
9 ; 0
10 ; 0
7 ; 6250000
6 ; 6252500
1 ; 6250000
2 ; 6247500
5 ; 6247500
;1.26308
0 ; 6250000
4 ; 6247500
3 ; 6250000
Start Iteration 12 (max: 200) with current residuum 1049259.6117094732 (target: 4006.9027944891645).
11 ; 0
10 ; 0
8 ; 0
9 ; 0
6 ; 6252500
7 ; 6250000
1 ; 6250000
2 ; 6247500
5 ; 6247500
;1.28416
0 ; 6250000
3 ; 6250000
4 ; 6247500
9 ; 0
10 ; 0
8 ; 0
11 ; 0
7 ; 6250000
6 ; 6252500
2 ; 6247500
5 ; 6247500
;1.25415
0 ; 6250000
3 ; 6250000
4 ; 6247500
1 ; 6250000
Finished after 12 iterations with a residuum of 1776.99804767934 (target: 4006.9027944891645).
Solved minimization problem (r = b - Ax) using CG in 34277ms.

Optimization finished
svm_type c_svc
kernel_type linear
nr_class 2
total_sv 10000
rho -0.00034842521776923263
label 1 -1
nr_sv 5066 4934
SV

Wrote model file with 10000 support vectors in 1086ms.
       JobID     AveRSS     MaxRSS    Elapsed MaxRSSTask  AveVMSize  MaxVMSize 
------------ ---------- ---------- ---------- ---------- ---------- ---------- 
4622                                 00:00:39                                  
4622.0         19028310     33168K   00:00:38          0  564938048    705216K 
