Loading openmpi/4.0.4-gcc-10.2
  Loading requirement: gcc/10.2
;0.281051
Read 10000 data points with 200 features in 880ms using the libsvm parser.
Using OpenMP as backend.

4 ; 5549446
Setup for solving the optimization problem done in 139ms.
;1.71555
0 ; 11115556
2 ; 11105554
1 ; 11105554
3 ; 11118890
Start Iteration 1 (max: 200) with current residuum 4006902794489164.5 (target: 4006.9027944891645).
4 ; 5549446
;1.70957
0 ; 11115556
1 ; 11105554
2 ; 11105554
3 ; 11118890
4 ; 5549446
;1.684
0 ; 11115556
1 ; 11105554
2 ; 11105554
3 ; 11118890
Start Iteration 2 (max: 200) with current residuum 3665335104454.558 (target: 4006.9027944891645).
4 ; 5549446
2 ; 11105554
;1.78987
0 ; 11115556
1 ; 11105554
3 ; 11118890
4 ; 5549446
;1.72379
0 ; 11115556
2 ; 11105554
3 ; 11118890
1 ; 11105554
Start Iteration 3 (max: 200) with current residuum 2130138.382066767 (target: 4006.9027944891645).
4 ; 5549446
2 ; 11105554
1 ; 11105554
;1.80616
0 ; 11115556
3 ; 11118890
4 ; 5549446
;1.72787
0 ; 11115556
3 ; 11118890
1 ; 11105554
2 ; 11105554
Start Iteration 4 (max: 200) with current residuum 337178.19725610747 (target: 4006.9027944891645).
4 ; 5549446
2 ; 11105554
1 ; 11105554
;1.78187
0 ; 11115556
3 ; 11118890
4 ; 5549446
1 ; 11105554
3 ; 11118890
;1.76856
0 ; 11115556
2 ; 11105554
Start Iteration 5 (max: 200) with current residuum 88895.71772869182 (target: 4006.9027944891645).
4 ; 5549446
;1.73599
0 ; 11115556
2 ; 11105554
1 ; 11105554
3 ; 11118890
4 ; 5549446
;1.70828
0 ; 11115556
2 ; 11105554
1 ; 11105554
3 ; 11118890
Start Iteration 6 (max: 200) with current residuum 824481.5274610976 (target: 4006.9027944891645).
4 ; 5549446
;1.73273
0 ; 11115556
3 ; 11118890
1 ; 11105554
2 ; 11105554
4 ; 5549446
;1.58372
0 ; 11115556
2 ; 11105554
3 ; 11118890
1 ; 11105554
Start Iteration 7 (max: 200) with current residuum 56931.96885103345 (target: 4006.9027944891645).
4 ; 5549446
;1.72459
0 ; 11115556
2 ; 11105554
1 ; 11105554
3 ; 11118890
4 ; 5549446
;1.73386
1 ; 11105554
0 ; 11115556
2 ; 11105554
3 ; 11118890
Start Iteration 8 (max: 200) with current residuum 30747.319662406066 (target: 4006.9027944891645).
4 ; 5549446
;1.7343
0 ; 11115556
2 ; 11105554
3 ; 11118890
1 ; 11105554
4 ; 5549446
;1.69313
0 ; 11115556
2 ; 11105554
3 ; 11118890
1 ; 11105554
Start Iteration 9 (max: 200) with current residuum 16473.598437464545 (target: 4006.9027944891645).
4 ; 5549446
;1.79796
1 ; 11105554
2 ; 11105554
0 ; 11115556
3 ; 11118890
4 ; 5549446
1 ; 11105554
;1.76559
0 ; 11115556
2 ; 11105554
3 ; 11118890
Start Iteration 10 (max: 200) with current residuum 168469.39298569795 (target: 4006.9027944891645).
4 ; 5549446
;1.76382
0 ; 11115556
1 ; 11105554
2 ; 11105554
3 ; 11118890
4 ; 5549446
;1.73834
0 ; 11115556
2 ; 11105554
1 ; 11105554
3 ; 11118890
Start Iteration 11 (max: 200) with current residuum 5643.016372270731 (target: 4006.9027944891645).
4 ; 5549446
2 ; 11105554
;1.79064
0 ; 11115556
1 ; 11105554
3 ; 11118890
4 ; 5549446
;1.74577
0 ; 11115556
1 ; 11105554
2 ; 11105554
3 ; 11118890
Start Iteration 12 (max: 200) with current residuum 1495157.6489960172 (target: 4006.9027944891645).
4 ; 5549446
;1.73438
0 ; 11115556
1 ; 11105554
2 ; 11105554
3 ; 11118890
4 ; 5549446
2 ; 11105554
1 ; 11105554
;1.79482
0 ; 11115556
3 ; 11118890
Finished after 12 iterations with a residuum of 1777.0034833665131 (target: 4006.9027944891645).
Solved minimization problem (r = b - Ax) using CG in 46141ms.

Optimization finished
svm_type c_svc
kernel_type linear
nr_class 2
total_sv 10000
rho -0.0020261039909037493
label 1 -1
nr_sv 5066 4934
SV

Wrote model file with 10000 support vectors in 409ms.
       JobID     AveRSS     MaxRSS    Elapsed MaxRSSTask  AveVMSize  MaxVMSize 
------------ ---------- ---------- ---------- ---------- ---------- ---------- 
4615                                 00:00:50                                  
4615.0         25335398     36268K   00:00:49          0  717663424    701072K 
