Loading openmpi/4.0.4-gcc-10.2
  Loading requirement: gcc/10.2
;0.282614
Read 10000 data points with 200 features in 908ms using the libsvm parser.
Using OpenMP as backend.

5 ; 0
4 ; 5549446
Setup for solving the optimization problem done in 167ms.
;1.68584
0 ; 11115556
2 ; 11105554
3 ; 11118890
1 ; 11105554
Start Iteration 1 (max: 200) with current residuum 4006902794489164.5 (target: 4006.9027944891645).
5 ; 0
4 ; 5549446
1 ; 11105554
3 ; 11118890
2 ; 11105554
;1.8313
0 ; 11115556
5 ; 0
4 ; 5549446
3 ; 11118890
;1.79313
0 ; 11115556
1 ; 11105554
2 ; 11105554
Start Iteration 2 (max: 200) with current residuum 3665335104454.5586 (target: 4006.9027944891645).
5 ; 0
4 ; 5549446
;1.79506
0 ; 11115556
3 ; 11118890
1 ; 11105554
2 ; 11105554
5 ; 0
4 ; 5549446
3 ; 11118890
;1.80837
0 ; 11115556
1 ; 11105554
2 ; 11105554
Start Iteration 3 (max: 200) with current residuum 2130138.3820667625 (target: 4006.9027944891645).
5 ; 0
4 ; 5549446
;1.79045
0 ; 11115556
2 ; 11105554
3 ; 11118890
1 ; 11105554
5 ; 0
4 ; 5549446
3 ; 11118890
;1.7831
0 ; 11115556
1 ; 11105554
2 ; 11105554
Start Iteration 4 (max: 200) with current residuum 337178.19725610537 (target: 4006.9027944891645).
5 ; 0
4 ; 5549446
1 ; 11105554
;1.80212
0 ; 11115556
3 ; 11118890
2 ; 11105554
5 ; 0
4 ; 5549446
;1.75429
0 ; 11115556
3 ; 11118890
1 ; 11105554
2 ; 11105554
Start Iteration 5 (max: 200) with current residuum 88895.71487115305 (target: 4006.9027944891645).
5 ; 0
4 ; 5549446
;1.66747
0 ; 11115556
3 ; 11118890
1 ; 11105554
2 ; 11105554
5 ; 0
4 ; 5549446
1 ; 11105554
;1.78564
0 ; 11115556
2 ; 11105554
3 ; 11118890
Start Iteration 6 (max: 200) with current residuum 774577.6266326127 (target: 4006.9027944891645).
5 ; 0
4 ; 5549446
;1.75991
0 ; 11115556
1 ; 11105554
3 ; 11118890
2 ; 11105554
5 ; 0
4 ; 5549446
2 ; 11105554
1 ; 11105554
3 ; 11118890
;1.85023
0 ; 11115556
Start Iteration 7 (max: 200) with current residuum 57186.38192400237 (target: 4006.9027944891645).
5 ; 0
4 ; 5549446
3 ; 11118890
1 ; 11105554
;1.84084
0 ; 11115556
2 ; 11105554
5 ; 0
4 ; 5549446
3 ; 11118890
;1.7951
0 ; 11115556
1 ; 11105554
2 ; 11105554
Start Iteration 8 (max: 200) with current residuum 30747.36461466891 (target: 4006.9027944891645).
5 ; 0
4 ; 5549446
3 ; 11118890
;1.80665
0 ; 11115556
1 ; 11105554
2 ; 11105554
5 ; 0
4 ; 5549446
;1.7695
0 ; 11115556
3 ; 11118890
1 ; 11105554
2 ; 11105554
Start Iteration 9 (max: 200) with current residuum 17179.54508134679 (target: 4006.9027944891645).
5 ; 0
4 ; 5549446
;1.71534
0 ; 11115556
3 ; 11118890
1 ; 11105554
2 ; 11105554
5 ; 0
4 ; 5549446
;1.72491
0 ; 11115556
3 ; 11118890
2 ; 11105554
1 ; 11105554
Start Iteration 10 (max: 200) with current residuum 119067.23539749315 (target: 4006.9027944891645).
5 ; 0
4 ; 5549446
3 ; 11118890
1 ; 11105554
;1.82383
0 ; 11115556
2 ; 11105554
5 ; 0
4 ; 5549446
;1.77047
0 ; 11115556
3 ; 11118890
1 ; 11105554
2 ; 11105554
Start Iteration 11 (max: 200) with current residuum 5624.657863281472 (target: 4006.9027944891645).
5 ; 0
4 ; 5549446
3 ; 11118890
1 ; 11105554
;1.81519
0 ; 11115556
2 ; 11105554
5 ; 0
4 ; 5549446
3 ; 11118890
;1.79031
0 ; 11115556
2 ; 11105554
1 ; 11105554
Start Iteration 12 (max: 200) with current residuum 2617067.4774665195 (target: 4006.9027944891645).
5 ; 0
4 ; 5549446
3 ; 11118890
;1.81666
0 ; 11115556
2 ; 11105554
1 ; 11105554
5 ; 0
4 ; 5549446
2 ; 11105554
;1.78868
0 ; 11115556
3 ; 11118890
1 ; 11105554
Finished after 12 iterations with a residuum of 1777.824949428173 (target: 4006.9027944891645).
Solved minimization problem (r = b - Ax) using CG in 46598ms.

Optimization finished
svm_type c_svc
kernel_type linear
nr_class 2
total_sv 10000
rho 0.005613821387189688
label 1 -1
nr_sv 5066 4934
SV

Wrote model file with 10000 support vectors in 586ms.
       JobID     AveRSS     MaxRSS    Elapsed MaxRSSTask  AveVMSize  MaxVMSize 
------------ ---------- ---------- ---------- ---------- ---------- ---------- 
4616                                 00:00:49                                  
4616.0           22726K     36568K   00:00:49          0  643300032    705172K 
