Loading openmpi/4.0.4-gcc-10.2
  Loading requirement: gcc/10.2
;0.234202
Read 10000 data points with 200 features in 848ms using the libsvm parser.
Using OpenMP as backend.

6 ; 0
5 ; 0
4 ; 5549446
Setup for solving the optimization problem done in 221ms.
;1.80263
0 ; 11115556
3 ; 11118890
2 ; 11105554
1 ; 11105554
Start Iteration 1 (max: 200) with current residuum 4006902794489165 (target: 4006.902794489165).
;0.787265
0 ; 11115556
6 ; 0
5 ; 0
4 ; 5549446
3 ; 11118890
2 ; 11105554
1 ; 11105554
5 ; 0
6 ; 0
4 ; 5549446
2 ; 11105554
1 ; 11105554
;1.86419
0 ; 11115556
3 ; 11118890
Start Iteration 2 (max: 200) with current residuum 3665335104454.562 (target: 4006.902794489165).
5 ; 0
6 ; 0
4 ; 5549446
;1.61566
0 ; 11115556
2 ; 11105554
3 ; 11118890
1 ; 11105554
5 ; 0
6 ; 0
4 ; 5549446
3 ; 11118890
1 ; 11105554
2 ; 11105554
;1.89965
0 ; 11115556
Start Iteration 3 (max: 200) with current residuum 2130138.38206675 (target: 4006.902794489165).
5 ; 0
6 ; 0
4 ; 5549446
3 ; 11118890
2 ; 11105554
;1.88105
0 ; 11115556
1 ; 11105554
5 ; 0
6 ; 0
4 ; 5549446
;1.8469
0 ; 11115556
3 ; 11118890
2 ; 11105554
1 ; 11105554
Start Iteration 4 (max: 200) with current residuum 337178.19725832815 (target: 4006.902794489165).
5 ; 0
6 ; 0
4 ; 5549446
;1.83453
0 ; 11115556
3 ; 11118890
2 ; 11105554
1 ; 11105554
6 ; 0
5 ; 0
4 ; 5549446
;1.79512
0 ; 11115556
3 ; 11118890
1 ; 11105554
2 ; 11105554
Start Iteration 5 (max: 200) with current residuum 88909.11606662908 (target: 4006.902794489165).
5 ; 0
6 ; 0
4 ; 5549446
;1.76698
0 ; 11115556
3 ; 11118890
1 ; 11105554
2 ; 11105554
;0.697847
0 ; 11115556
5 ; 0
6 ; 0
4 ; 5549446
3 ; 11118890
2 ; 11105554
1 ; 11105554
Start Iteration 6 (max: 200) with current residuum 88616020.69383344 (target: 4006.902794489165).
5 ; 0
6 ; 0
4 ; 5549446
;1.69209
0 ; 11115556
1 ; 11105554
3 ; 11118890
2 ; 11105554
;0.784476
0 ; 11115556
6 ; 0
5 ; 0
4 ; 5549446
1 ; 11105554
3 ; 11118890
2 ; 11105554
Start Iteration 7 (max: 200) with current residuum 53281.84824364162 (target: 4006.902794489165).
5 ; 0
6 ; 0
4 ; 5549446
;1.79059
0 ; 11115556
3 ; 11118890
2 ; 11105554
1 ; 11105554
;0.670816
0 ; 11115556
5 ; 0
6 ; 0
4 ; 5549446
2 ; 11105554
1 ; 11105554
3 ; 11118890
Start Iteration 8 (max: 200) with current residuum 30747.24649784815 (target: 4006.902794489165).
5 ; 0
6 ; 0
4 ; 5549446
1 ; 11105554
;1.83116
0 ; 11115556
2 ; 11105554
3 ; 11118890
5 ; 0
6 ; 0
4 ; 5549446
3 ; 11118890
2 ; 11105554
;1.83495
0 ; 11115556
1 ; 11105554
Start Iteration 9 (max: 200) with current residuum 15324.529305346985 (target: 4006.902794489165).
5 ; 0
6 ; 0
4 ; 5549446
;1.70228
0 ; 11115556
2 ; 11105554
1 ; 11105554
3 ; 11118890
6 ; 0
5 ; 0
4 ; 5549446
;1.835
0 ; 11115556
3 ; 11118890
1 ; 11105554
2 ; 11105554
Start Iteration 10 (max: 200) with current residuum 34874.15964360569 (target: 4006.902794489165).
5 ; 0
6 ; 0
4 ; 5549446
;1.82393
0 ; 11115556
2 ; 11105554
1 ; 11105554
3 ; 11118890
5 ; 0
6 ; 0
4 ; 5549446
;1.82743
0 ; 11115556
1 ; 11105554
3 ; 11118890
2 ; 11105554
Start Iteration 11 (max: 200) with current residuum 17594.014649019184 (target: 4006.902794489165).
;0.726877
0 ; 11115556
5 ; 0
6 ; 0
4 ; 5549446
3 ; 11118890
2 ; 11105554
1 ; 11105554
5 ; 0
6 ; 0
4 ; 5549446
;1.84717
0 ; 11115556
2 ; 11105554
3 ; 11118890
1 ; 11105554
Start Iteration 12 (max: 200) with current residuum 10666.787987800542 (target: 4006.902794489165).
6 ; 0
5 ; 0
4 ; 5549446
;1.85108
0 ; 11115556
2 ; 11105554
3 ; 11118890
1 ; 11105554
5 ; 0
6 ; 0
4 ; 5549446
;1.83911
0 ; 11115556
3 ; 11118890
2 ; 11105554
1 ; 11105554
Finished after 12 iterations with a residuum of 1776.996864370481 (target: 4006.902794489165).
Solved minimization problem (r = b - Ax) using CG in 50308ms.

Optimization finished
svm_type c_svc
kernel_type linear
nr_class 2
total_sv 10000
rho -0.0005335263105301635
label 1 -1
nr_sv 5066 4934
SV

Wrote model file with 10000 support vectors in 421ms.
       JobID     AveRSS     MaxRSS    Elapsed MaxRSSTask  AveVMSize  MaxVMSize 
------------ ---------- ---------- ---------- ---------- ---------- ---------- 
4617                                 00:00:53                                  
4617.0         21839286     36584K   00:00:53          0  591441344    709280K 
