Loading openmpi/4.0.4-gcc-10.2
  Loading requirement: gcc/10.2
;0.339182
Read 10000 data points with 200 features in 698ms using the libsvm parser.
Using OpenMP as backend.

7 ; 6250000
4 ; 6247500
2 ; 6247500
6 ; 6252500
3 ; 6250000
Setup for solving the optimization problem done in 199ms.
;1.64806
0 ; 6250000
5 ; 6247500
1 ; 6250000
Start Iteration 1 (max: 200) with current residuum 4006902794489164 (target: 4006.902794489164).
7 ; 6250000
4 ; 6247500
5 ; 6247500
2 ; 6247500
;1.63508
0 ; 6250000
3 ; 6250000
6 ; 6252500
1 ; 6250000
2 ; 6247500
;1.6134
0 ; 6250000
6 ; 6252500
7 ; 6250000
5 ; 6247500
3 ; 6250000
1 ; 6250000
4 ; 6247500
Start Iteration 2 (max: 200) with current residuum 3665335104454.5586 (target: 4006.902794489164).
5 ; 6247500
;1.60488
0 ; 6250000
6 ; 6252500
2 ; 6247500
4 ; 6247500
7 ; 6250000
3 ; 6250000
1 ; 6250000
2 ; 6247500
5 ; 6247500
3 ; 6250000
;1.66959
0 ; 6250000
7 ; 6250000
1 ; 6250000
4 ; 6247500
6 ; 6252500
Start Iteration 3 (max: 200) with current residuum 2130138.38206676 (target: 4006.902794489164).
;1.52481
0 ; 6250000
5 ; 6247500
6 ; 6252500
4 ; 6247500
1 ; 6250000
7 ; 6250000
2 ; 6247500
3 ; 6250000
2 ; 6247500
3 ; 6250000
1 ; 6250000
6 ; 6252500
;1.70167
0 ; 6250000
4 ; 6247500
7 ; 6250000
5 ; 6247500
Start Iteration 4 (max: 200) with current residuum 337178.1972561171 (target: 4006.902794489164).
7 ; 6250000
;0.700955
0 ; 6250000
2 ; 6247500
5 ; 6247500
3 ; 6250000
1 ; 6250000
6 ; 6252500
4 ; 6247500
;1.5977
0 ; 6250000
7 ; 6250000
5 ; 6247500
1 ; 6250000
6 ; 6252500
4 ; 6247500
2 ; 6247500
3 ; 6250000
Start Iteration 5 (max: 200) with current residuum 88895.77171341308 (target: 4006.902794489164).
5 ; 6247500
2 ; 6247500
6 ; 6252500
4 ; 6247500
1 ; 6250000
;1.58399
0 ; 6250000
3 ; 6250000
7 ; 6250000
4 ; 6247500
;1.57199
0 ; 6250000
6 ; 6252500
1 ; 6250000
2 ; 6247500
3 ; 6250000
5 ; 6247500
7 ; 6250000
Start Iteration 6 (max: 200) with current residuum 1762232.4686900422 (target: 4006.902794489164).
6 ; 6252500
4 ; 6247500
1 ; 6250000
3 ; 6250000
;1.64249
0 ; 6250000
5 ; 6247500
7 ; 6250000
2 ; 6247500
;1.54163
0 ; 6250000
3 ; 6250000
2 ; 6247500
6 ; 6252500
5 ; 6247500
4 ; 6247500
1 ; 6250000
7 ; 6250000
Start Iteration 7 (max: 200) with current residuum 54914.12203174133 (target: 4006.902794489164).
;1.35204
0 ; 6250000
7 ; 6250000
2 ; 6247500
3 ; 6250000
4 ; 6247500
5 ; 6247500
1 ; 6250000
6 ; 6252500
4 ; 6247500
1 ; 6250000
;1.60975
0 ; 6250000
5 ; 6247500
6 ; 6252500
3 ; 6250000
2 ; 6247500
7 ; 6250000
Start Iteration 8 (max: 200) with current residuum 30747.33963225769 (target: 4006.902794489164).
1 ; 6250000
2 ; 6247500
;1.58409
0 ; 6250000
3 ; 6250000
5 ; 6247500
4 ; 6247500
6 ; 6252500
7 ; 6250000
1 ; 6250000
6 ; 6252500
5 ; 6247500
4 ; 6247500
;1.62
0 ; 6250000
2 ; 6247500
3 ; 6250000
7 ; 6250000
Start Iteration 9 (max: 200) with current residuum 16787.968581573663 (target: 4006.902794489164).
3 ; 6250000
1 ; 6250000
2 ; 6247500
;1.62391
0 ; 6250000
4 ; 6247500
5 ; 6247500
7 ; 6250000
6 ; 6252500
3 ; 6250000
6 ; 6252500
2 ; 6247500
1 ; 6250000
7 ; 6250000
5 ; 6247500
;1.70608
0 ; 6250000
4 ; 6247500
Start Iteration 10 (max: 200) with current residuum 141749.90841205456 (target: 4006.902794489164).
1 ; 6250000
6 ; 6252500
2 ; 6247500
3 ; 6250000
4 ; 6247500
5 ; 6247500
7 ; 6250000
;1.63405
0 ; 6250000
3 ; 6250000
2 ; 6247500
4 ; 6247500
7 ; 6250000
;1.67538
0 ; 6250000
1 ; 6250000
5 ; 6247500
6 ; 6252500
Start Iteration 11 (max: 200) with current residuum 5630.890431269964 (target: 4006.902794489164).
4 ; 6247500
1 ; 6250000
6 ; 6252500
2 ; 6247500
;1.66144
0 ; 6250000
3 ; 6250000
7 ; 6250000
5 ; 6247500
3 ; 6250000
2 ; 6247500
7 ; 6250000
4 ; 6247500
6 ; 6252500
;1.69289
0 ; 6250000
1 ; 6250000
5 ; 6247500
Start Iteration 12 (max: 200) with current residuum 3178666.189806567 (target: 4006.902794489164).
6 ; 6252500
1 ; 6250000
;1.65593
3 ; 6250000
0 ; 6250000
7 ; 6250000
5 ; 6247500
4 ; 6247500
2 ; 6247500
6 ; 6252500
2 ; 6247500
3 ; 6250000
4 ; 6247500
7 ; 6250000
5 ; 6247500
;1.69055
0 ; 6250000
1 ; 6250000
Finished after 12 iterations with a residuum of 1777.0335637171688 (target: 4006.902794489164).
Solved minimization problem (r = b - Ax) using CG in 44627ms.

Optimization finished
svm_type c_svc
kernel_type linear
nr_class 2
total_sv 10000
rho 0.000473588319817253
label 1 -1
nr_sv 5066 4934
SV

Wrote model file with 10000 support vectors in 591ms.
       JobID     AveRSS     MaxRSS    Elapsed MaxRSSTask  AveVMSize  MaxVMSize 
------------ ---------- ---------- ---------- ---------- ---------- ---------- 
4618                                 00:00:48                                  
4618.0           21044K     33032K   00:00:47          0 714004.50K    722040K 
