Loading openmpi/4.0.4-gcc-10.2
  Loading requirement: gcc/10.2
;0.258551
Read 10000 data points with 200 features in 737ms using the libsvm parser.
Using OpenMP as backend.

8 ; 0
5 ; 6247500
7 ; 6250000
6 ; 6252500
Setup for solving the optimization problem done in 138ms.
;0.970379
0 ; 6250000
1 ; 6250000
3 ; 6250000
2 ; 6247500
4 ; 6247500
Start Iteration 1 (max: 200) with current residuum 4006902794489164 (target: 4006.902794489164).
8 ; 0
5 ; 6247500
7 ; 6250000
6 ; 6252500
;0.97968
0 ; 6250000
2 ; 6247500
3 ; 6250000
4 ; 6247500
1 ; 6250000
8 ; 0
5 ; 6247500
7 ; 6250000
6 ; 6252500
;0.965803
0 ; 6250000
4 ; 6247500
2 ; 6247500
3 ; 6250000
1 ; 6250000
Start Iteration 2 (max: 200) with current residuum 3665335104454.5586 (target: 4006.902794489164).
8 ; 0
5 ; 6247500
7 ; 6250000
6 ; 6252500
;1.03355
0 ; 6250000
2 ; 6247500
4 ; 6247500
3 ; 6250000
1 ; 6250000
8 ; 0
5 ; 6247500
7 ; 6250000
6 ; 6252500
2 ; 6247500
;1.02515
0 ; 6250000
1 ; 6250000
4 ; 6247500
3 ; 6250000
Start Iteration 3 (max: 200) with current residuum 2130138.382066764 (target: 4006.902794489164).
8 ; 0
7 ; 6250000
5 ; 6247500
6 ; 6252500
;1.01452
0 ; 6250000
2 ; 6247500
1 ; 6250000
4 ; 6247500
3 ; 6250000
8 ; 0
5 ; 6247500
7 ; 6250000
6 ; 6252500
;0.931334
0 ; 6250000
2 ; 6247500
4 ; 6247500
1 ; 6250000
3 ; 6250000
Start Iteration 4 (max: 200) with current residuum 337178.1972561189 (target: 4006.902794489164).
8 ; 0
5 ; 6247500
7 ; 6250000
6 ; 6252500
3 ; 6250000
;1.07775
0 ; 6250000
4 ; 6247500
2 ; 6247500
1 ; 6250000
8 ; 0
5 ; 6247500
7 ; 6250000
6 ; 6252500
;1.06282
0 ; 6250000
3 ; 6250000
2 ; 6247500
4 ; 6247500
1 ; 6250000
Start Iteration 5 (max: 200) with current residuum 88895.76245355415 (target: 4006.902794489164).
8 ; 0
5 ; 6247500
7 ; 6250000
6 ; 6252500
;1.0286
0 ; 6250000
3 ; 6250000
4 ; 6247500
2 ; 6247500
1 ; 6250000
8 ; 0
5 ; 6247500
7 ; 6250000
6 ; 6252500
;1.07819
0 ; 6250000
4 ; 6247500
2 ; 6247500
3 ; 6250000
1 ; 6250000
Start Iteration 6 (max: 200) with current residuum 1602059.8325190924 (target: 4006.902794489164).
8 ; 0
5 ; 6247500
7 ; 6250000
6 ; 6252500
;0.935068
0 ; 6250000
1 ; 6250000
2 ; 6247500
4 ; 6247500
3 ; 6250000
8 ; 0
5 ; 6247500
6 ; 6252500
7 ; 6250000
;1.03054
0 ; 6250000
2 ; 6247500
1 ; 6250000
3 ; 6250000
4 ; 6247500
Start Iteration 7 (max: 200) with current residuum 55085.74626473931 (target: 4006.902794489164).
8 ; 0
5 ; 6247500
7 ; 6250000
6 ; 6252500
;1.02692
0 ; 6250000
3 ; 6250000
2 ; 6247500
4 ; 6247500
1 ; 6250000
8 ; 0
5 ; 6247500
7 ; 6250000
6 ; 6252500
;1.04554
0 ; 6250000
2 ; 6247500
3 ; 6250000
1 ; 6250000
4 ; 6247500
Start Iteration 8 (max: 200) with current residuum 30747.30020357933 (target: 4006.902794489164).
8 ; 0
;0.782864
0 ; 6250000
5 ; 6247500
7 ; 6250000
6 ; 6252500
2 ; 6247500
1 ; 6250000
4 ; 6247500
3 ; 6250000
8 ; 0
5 ; 6247500
7 ; 6250000
6 ; 6252500
2 ; 6247500
4 ; 6247500
;1.08925
0 ; 6250000
3 ; 6250000
1 ; 6250000
Start Iteration 9 (max: 200) with current residuum 16168.411790759077 (target: 4006.902794489164).
8 ; 0
5 ; 6247500
7 ; 6250000
6 ; 6252500
;1.03681
0 ; 6250000
2 ; 6247500
1 ; 6250000
4 ; 6247500
3 ; 6250000
8 ; 0
5 ; 6247500
7 ; 6250000
6 ; 6252500
;0.997788
0 ; 6250000
2 ; 6247500
1 ; 6250000
4 ; 6247500
3 ; 6250000
Start Iteration 10 (max: 200) with current residuum 207469.2182369782 (target: 4006.902794489164).
8 ; 0
5 ; 6247500
7 ; 6250000
6 ; 6252500
;0.985767
0 ; 6250000
3 ; 6250000
1 ; 6250000
4 ; 6247500
2 ; 6247500
8 ; 0
7 ; 6250000
5 ; 6247500
6 ; 6252500
;0.908891
0 ; 6250000
4 ; 6247500
2 ; 6247500
3 ; 6250000
1 ; 6250000
Start Iteration 11 (max: 200) with current residuum 5627.725452855392 (target: 4006.902794489164).
8 ; 0
5 ; 6247500
7 ; 6250000
6 ; 6252500
;1.01043
0 ; 6250000
1 ; 6250000
2 ; 6247500
3 ; 6250000
4 ; 6247500
8 ; 0
7 ; 6250000
5 ; 6247500
6 ; 6252500
2 ; 6247500
3 ; 6250000
;1.06259
0 ; 6250000
1 ; 6250000
4 ; 6247500
Start Iteration 12 (max: 200) with current residuum 4676394.3691758225 (target: 4006.902794489164).
8 ; 0
5 ; 6247500
7 ; 6250000
6 ; 6252500
;1.02445
0 ; 6250000
3 ; 6250000
2 ; 6247500
1 ; 6250000
4 ; 6247500
8 ; 0
5 ; 6247500
7 ; 6250000
6 ; 6252500
;0.868501
0 ; 6250000
4 ; 6247500
3 ; 6250000
2 ; 6247500
1 ; 6250000
Finished after 12 iterations with a residuum of 1777.1819932144572 (target: 4006.902794489164).
Solved minimization problem (r = b - Ax) using CG in 28656ms.

Optimization finished
svm_type c_svc
kernel_type linear
nr_class 2
total_sv 10000
rho 0.0021448982234630876
label 1 -1
nr_sv 5066 4934
SV

Wrote model file with 10000 support vectors in 1164ms.
       JobID     AveRSS     MaxRSS    Elapsed MaxRSSTask  AveVMSize  MaxVMSize 
------------ ---------- ---------- ---------- ---------- ---------- ---------- 
4619                                 00:00:33                                  
4619.0         20728490     33048K   00:00:32          0  663438656    701064K 
