Loading openmpi/4.0.4-gcc-10.2
  Loading requirement: gcc/10.2
Read 100000 data points with 1000 features in 16789ms using the libsvm parser from file '../../SVM/data/100k/1000f/data_file.libsvm'.

task: training
kernel type: linear -> u'*v
cost: 1
epsilon: 1e-06
input file (data set): '../../SVM/data/100k/1000f/data_file.libsvm'
output file (model): 'data_file.libsvm.model'

Using OpenMP as backend.

Setup for solving the optimization problem done in 121ms.
Start Iteration 1 (max: 1000) with current residuum 8.290999254707241e+19 (target: 82909992.54707241). Done in 1461366ms.
Start Iteration 2 (max: 1000) with current residuum 5.247632193851785e+16 (target: 82909992.54707241). Done in 1461412ms.
Start Iteration 3 (max: 1000) with current residuum 347882682.54348993 (target: 82909992.54707241). Done in 1461337ms.
Finished after 3 iterations with a residuum of 34905192.04002176 (target: 82909992.54707241) and an average iteration time of 1461371ms.
Solved minimization problem (r = b - Ax) using CG in 5115499ms.

Optimization finished
svm_type c_svc
kernel_type linear
nr_class 2
total_sv 100000
rho 2.480772949573293
label 1 -1
nr_sv 50000 50000
SV

Wrote model file ('data_file.libsvm.model') with 100000 support vectors in 5152ms.
       JobID     AveRSS     MaxRSS    Elapsed MaxRSSTask  AveVMSize  MaxVMSize 
------------ ---------- ---------- ---------- ---------- ---------- ---------- 
4579                                 01:25:48                                  
4579.0          796168K    796168K   01:25:47          0   1089940K   1089940K 
