Loading openmpi/4.0.4-gcc-10.2
  Loading requirement: gcc/10.2
Read 100000 data points with 100 features in 1373ms using the libsvm parser from file '../../SVM/data/100k/100f/data_file.libsvm'.

task: training
kernel type: linear -> u'*v
cost: 1
epsilon: 1e-06
input file (data set): '../../SVM/data/100k/100f/data_file.libsvm'
output file (model): 'data_file.libsvm.model'

Using OpenMP as backend.

Setup for solving the optimization problem done in 13ms.
Start Iteration 1 (max: 100) with current residuum 9.373795374844893e+17 (target: 937379.5374844894). Done in 163004ms.
Start Iteration 2 (max: 100) with current residuum 941784933494421.2 (target: 937379.5374844894). Done in 163030ms.
Start Iteration 3 (max: 100) with current residuum 2463776559.499442 (target: 937379.5374844894). Done in 163058ms.
Start Iteration 4 (max: 100) with current residuum 383937396.35715544 (target: 937379.5374844894). Done in 163008ms.
Start Iteration 5 (max: 100) with current residuum 110955130.55064592 (target: 937379.5374844894). Done in 163008ms.
Start Iteration 6 (max: 100) with current residuum 30343170206.776276 (target: 937379.5374844894). Done in 163057ms.
Start Iteration 7 (max: 100) with current residuum 45923733.42214304 (target: 937379.5374844894). Done in 163025ms.
Start Iteration 8 (max: 100) with current residuum 15261686.293555707 (target: 937379.5374844894). Done in 163010ms.
Start Iteration 9 (max: 100) with current residuum 5397522.271053644 (target: 937379.5374844894). Done in 163018ms.
Start Iteration 10 (max: 100) with current residuum 20323254.07885364 (target: 937379.5374844894). Done in 163033ms.
Start Iteration 11 (max: 100) with current residuum 5345580.677834417 (target: 937379.5374844894). Done in 163022ms.
Start Iteration 12 (max: 100) with current residuum 1672523.1438205491 (target: 937379.5374844894). Done in 163013ms.
Finished after 12 iterations with a residuum of 348443.2155197209 (target: 937379.5374844894) and an average iteration time of 163023ms.
Solved minimization problem (r = b - Ax) using CG in 2037826ms.

Optimization finished
svm_type c_svc
kernel_type linear
nr_class 2
total_sv 100000
rho -0.22982589627596894
label 1 -1
nr_sv 50000 50000
SV

Wrote model file ('data_file.libsvm.model') with 100000 support vectors in 526ms.
       JobID     AveRSS     MaxRSS    Elapsed MaxRSSTask  AveVMSize  MaxVMSize 
------------ ---------- ---------- ---------- ---------- ---------- ---------- 
4576                                 00:34:01                                  
4576.0          195280K    195280K   00:34:00          0    551868K    551868K 
